by 0.35215 -0.35603 0.25708 -0.10611 -0.20718 0.63596 -1.0129 -0.45964 -0.48749 -0.080555 0.43769 0.46046 -0.80943 -0.23336 0.46623 -0.10866 -0.1221 -0.63544 -0.73486 -0.24848 0.4317 0.092264 0.52033 -0.46784 0.016798 -1.5124 -0.19986 -0.43351 -0.59247 0.18088 3.5194 -0.7024 0.23613 -0.68514 -0.37009 -0.080451 0.10635 -0.085495 -0.18451 0.29771 0.18123 0.53627 -0.1001 -0.55165 0.098833 -0.12942 -0.82628 -0.4329 -0.10301 -0.56079
at 0.27724 0.88469 -0.26247 0.084104 0.40813 -1.1697 -0.68522 0.1427 -0.57345 -0.58575 -0.50834 -0.86411 -0.52596 -0.56379 0.32862 0.43393 -0.21248 0.49365 -1.8137 -0.035741 1.3227 0.80865 0.012217 -0.087017 -0.16813 -1.5935 0.47034 0.26097 -0.41666 -0.38526 3.4413 0.34383 -0.035895 -0.5678 0.18377 -0.48647 0.42646 0.4408 1.0931 0.063915 -0.064305 -0.29231 0.086502 0.35245 0.17891 0.25941 0.37069 -0.51611 0.023163 0.05779
( -0.24978 1.0476 0.21602 0.23278 0.12371 0.2761 0.51184 -1.36 -0.6902 -0.66679 0.49105 0.51671 -0.027218 -0.52056 0.49539 -0.097307 0.12779 0.44388 -1.2612 0.66209 -0.55461 -0.43498 0.81247 0.40855 -0.094327 -0.622 0.36498 -1.0038 -0.77693 -0.22408 3.6533 -0.52004 -0.57384 0.72381 -0.24887 -0.14347 0.69169 -0.51861 1.0806 0.20382 1.1045 0.31045 0.60765 -0.64538 -0.60249 0.60803 0.34393 -0.79411 0.15177 0.45779
) -0.28314 1.0028 0.14746 0.22262 0.0070985 0.23108 0.57082 -1.2767 -0.72415 -0.7527 0.52624 0.39498 0.0018922 -0.39396 0.44859 -0.019057 0.068143 0.45082 -1.2849 0.68088 -0.48318 -0.45829 0.85504 0.47712 -0.16152 -0.74784 0.40742 -0.97385 -0.7258 -0.17232 3.8901 -0.46535 -0.61925 0.63584 -0.20339 -0.080612 0.64959 -0.51208 0.91193 0.036208 1.0099 0.18802 0.59359 -0.61313 -0.66839 0.67479 0.40625 -0.6959 0.14553 0.37339
from 0.41037 0.11342 0.051524 -0.53833 -0.12913 0.22247 -0.9494 -0.18963 -0.36623 -0.067011 0.19356 -0.33044 0.11615 -0.58585 0.36106 0.12555 -0.3581 -0.023201 -1.2319 0.23383 0.71256 0.14824 0.50874 -0.12313 -0.20353 -1.82 0.22291 0.020291 -0.081743 -0.27481 3.7343 -0.01874 -0.084522 -0.30364 0.27959 0.043328 -0.24621 0.015373 0.49751 0.15108 -0.01619 0.40132 0.23067 -0.10743 -0.36625 -0.051135 0.041474 -0.36064 -0.19616 -0.81066
his -0.033537 0.47537 -0.68746 -0.72661 0.84028 0.64304 -0.75975 0.63242 -0.54176 0.11632 -0.20254 0.63321 -1.2677 -0.17674 0.35284 -0.55096 -0.65025 -0.3405 -0.31658 -0.077908 -0.11085 0.97299 -0.016844 -0.73752 0.47852 -2.7069 -0.42417 -0.053489 0.018467 -0.11892 3.3082 0.17864 -0.50702 -0.22894 0.24178 0.5698 0.097113 0.95422 0.0076093 -0.54154 0.09828 0.41533 -1.116 0.0050954 -0.14975 -0.45133 -0.081188 -0.62173 -0.022628 -0.4383
'' 0.0028594 0.19457 -0.19449 -0.037583 0.9634 0.099237 -0.27993 -0.71535 -0.28148 0.073535 -0.47299 0.85916 -1.1857 0.12859 1.419 0.23505 0.77673 0.22569 0.20118 -0.62546 -0.53357 0.90877 0.14301 -0.31878 0.612 -2.1162 -1.1655 0.49382 0.87872 -0.77584 3.1332 0.021558 -0.4612 0.0059404 -0.84945 -0.38848 0.086459 -0.39445 0.83242 0.062272 -0.49093 0.68111 0.087143 -0.23992 0.22192 -0.12472 -0.28543 0.043905 -0.22286 1.6923
`` 0.12817 0.15858 -0.38843 -0.39108 0.68366 0.00081259 -0.22981 -0.63358 -0.27663 0.40934 -0.65128 0.8461 -0.9904 0.20696 1.2567 0.064774 0.65813 0.39954 0.076104 -0.54083 -0.32438 0.8456 0.17273 -0.13504 0.39626 -2.3358 -1.6576 0.59957 1.0876 -1.0118 3.33 0.075853 -0.65637 -0.015799 -0.85429 -0.47358 0.082404 -0.69719 0.46647 -0.32044 -0.45517 0.30804 0.07502 -0.021783 0.10823 -0.03306 -0.2514 0.088184 -0.22215 1.4971
an 0.36143 0.58615 -0.23718 0.079656 0.80192 0.49919 -0.33172 -0.19785 0.13876 0.16804 0.12557 -0.24494 -0.092315 0.35135 -0.024396 -0.31713 0.071206 0.37087 -0.82027 0.21193 -0.052153 0.29928 -0.49494 -0.12546 -0.012394 -2.2174 -0.082666 0.15184 0.050396 0.61229 3.7305 -0.93152 -0.28716 -0.48056 0.060682 0.058104 0.42065 -0.046598 0.083503 -0.23819 0.38828 0.36926 -0.44066 0.075673 -0.050556 -0.42269 -0.21577 0.39362 0.36523 0.36077
be 0.91102 -0.22872 0.2077 -0.20237 0.50697 -0.057893 -0.41729 -0.075341 -0.30454 -0.003286 0.44481 0.41818 -0.33409 0.032917 0.98872 0.91984 0.40521 0.01925 -0.1052 -0.79865 -0.36403 -0.087995 0.72182 0.11114 0.2153 -1.9411 -0.26376 0.4455 0.27586 -0.21104 4.0212 -0.061943 -0.32134 -0.81922 0.2108 -0.20414 0.72625 0.47517 -0.39853 -0.39168 -0.34581 0.025928 0.13072 0.73562 -0.15199 -0.18439 -0.67128 0.16692 -0.050063 0.19241
